{"conv_kernels": [[[0.6788918834964903, 0.6117078327700967, -0.028786476570046605, -0.6359687726156743], [0.16937259823013953, 0.12565889255693044, 0.14162593174853655, -0.02726144911043739], [-0.7206665134663445, 0.34954817508045444, 0.19615316093871316, 0.184845287118469], [-0.2503729173594598, 0.1675268208146971, -0.5390391547273776, 0.07778127468318223]], [[0.6723962152065752, 0.006292050011155955, -0.395694070941435, 0.07305147325871016], [-0.5416730438619934, 0.0771972483925153, 0.27591215702868443, 0.03711532769920929], [0.28487135682916664, 0.009719688705376659, 0.3366808561464767, -0.2407624410673356], [0.5183338322491773, 0.4382760500193988, -0.4663849453287164, -0.024341577959435503]], [[0.22549932299030218, 0.41624537734404704, -0.837234757317432, 0.07447381899257596], [-0.6622137212093473, 0.121160710468269, 0.4857972059670771, -0.5901575304705524], [0.23403896285198486, -0.28888003050320243, 0.2725861824337329, 0.22141548137605546], [0.5282174060491888, 0.29265482959133177, -0.6158704201262232, 0.4494050412421461]], [[0.48283120903359605, 0.5920837358947592, -0.8628236164926695, -0.06728646410633071], [0.544896027371762, 0.17682533045528223, -0.3889316209421426, 0.1400737472523326], [-0.5044123700705744, -0.22516413094008986, 0.9228276229180078, -0.09118759536772664], [0.0388470369956157, 0.5154782097137461, -0.25410939714231023, 0.5985689908793986]], [[-0.04758991498611063, -0.27890854715249985, -0.9127211442983084, 0.18758068784770476], [-0.05015043358054803, -0.9196626395350573, -0.48902573598439153, 0.22149382595979467], [-0.3139229849211236, -1.0792432596493937, -0.3709381454880205, 0.17413798410806883], [0.4554537303405254, 0.6661007277872752, 0.665151641546969, 0.36261578250865734]], [[0.2780001562510807, 0.12886787754452414, -1.208322709135706, -0.1294463377305011], [-1.1261371724312892, 0.27873447582034017, -0.23866651980022607, 0.7752741852013553], [-1.174722807544714, 0.33910648173466973, -1.4282819954209498, -0.08593515475513147], [0.3694897628042878, 0.65356824635368, 0.6825647103614332, -0.1791860038302967]], [[-0.06254872608894096, 0.025183526142548422, 0.6407989445619953, 0.18721141725748514], [-0.050161974315788685, -0.4982209138005605, 0.11951529063071183, 0.3674085656043074], [-0.4578938567480635, -0.0021697498027635127, 0.556121177545204, 0.07672528957521202], [-0.039887448175038, 0.5293099904882941, 0.2050814520777464, 0.4349051462044147]], [[-0.4570478140630556, 0.6393876401977412, -0.9948766514989296, 0.07377723536704092], [-0.5035483065819143, 0.8950549407409353, -0.07375837910651377, -0.21189847053703598], [-0.6948482679576973, -0.17398130315816537, 0.5484161055379396, -0.2039731997950878], [-0.2521649754448454, -0.3156557138215694, 0.3354324691596921, 0.09721179096243737]]], "conv_biases": [0.1673432464045977, 0.16091939334338978, -0.07773918938779979, 0.0590697652950638, 0.09548145391526534, 0.02498733977041131, -0.030710728849968883, -0.06620027712870451], "fc_w": [-0.15902184294179994, 0.022740206735256268, -0.613952115472535, 0.12002890492151652, -0.3997719621069376, 0.15364676905069102, -0.2866638693457614, 0.08801995940468635, 0.08290986136498399, -0.09946903745887689, 0.13054258933530977, 0.09628251181659375, 0.3714681355647985, 0.2721520322125912, 0.3813709339266858, 0.13044706582903337, -0.08931364482890708, 0.21116286979180082, 0.3739066955721862, 0.4793727447532554, 0.19876110457608007, 0.009680777866472014, 0.5845557430298496, 0.33222806856908854, -0.1723257052467211, 0.17865248223708527, 0.3021760336252244, -0.10559451633025843, 0.060454320150613534, 0.14960922003422084, -0.007838678118113479, 0.7088197124067609, 0.24719917436491792, -0.015754746510105968, 0.5269981732457814, 0.41142205047508384, -0.1894497878495063, -0.4117352142430372, 0.24876698074898373, -0.6339139546822475, -0.23234377012726298, -0.21231715279851476, -0.4265442748702545, -0.6548373281383979, -0.3631240773914911, -0.03740570706534396, -0.4775152077775364, -0.40062602487618526, -0.4985136200109606, -0.6222804935782377, -0.7786943964671176, -0.6062245525568832, -0.6472183435551686, -0.9048438107555735, -0.29015188294657734, 0.05569035376955304, -0.09765800569330226, 0.12892180412070117, 0.51800125625105, -0.5205558484421046, -0.20792807257667717, -0.0949271773525182, -0.13604972129740975, 0.2650282530910175, 0.19455828425052493, 0.00617641987209078, -0.1138551598400706, 0.1749246278695585, -0.28625693133730135, -0.6944278891596531, -0.050908854822036796, 0.420790447370038], "fc_b": 0.0013899114917507189}